digraph Tree {
node [shape=box, style="filled, rounded", color="black", fontname=helvetica] ;
edge [fontname=helvetica] ;
0 [label="petal length (cm) <= 2.45\ngini = 0.67\nsamples = 102\nvalue = [53, 47, 50]\nclass = setosa", fillcolor="#fefbf9"] ;
1 [label="gini = 0.0\nsamples = 34\nvalue = [53, 0, 0]\nclass = setosa", fillcolor="#e58139"] ;
0 -> 1 [labeldistance=2.5, labelangle=45, headlabel="True"] ;
2 [label="petal length (cm) <= 4.95\ngini = 0.5\nsamples = 68\nvalue = [0, 47, 50]\nclass = virginica", fillcolor="#f7f3fd"] ;
0 -> 2 [labeldistance=2.5, labelangle=-45, headlabel="False"] ;
3 [label="petal width (cm) <= 1.65\ngini = 0.18\nsamples = 38\nvalue = [0, 45, 5]\nclass = versicolor", fillcolor="#4fe88f"] ;
2 -> 3 ;
4 [label="gini = 0.0\nsamples = 33\nvalue = [0, 45, 0]\nclass = versicolor", fillcolor="#39e581"] ;
3 -> 4 ;
5 [label="gini = 0.0\nsamples = 5\nvalue = [0, 0, 5]\nclass = virginica", fillcolor="#8139e5"] ;
3 -> 5 ;
6 [label="petal width (cm) <= 1.7\ngini = 0.08\nsamples = 30\nvalue = [0, 2, 45]\nclass = virginica", fillcolor="#8742e6"] ;
2 -> 6 ;
7 [label="sepal length (cm) <= 6.05\ngini = 0.3\nsamples = 5\nvalue = [0, 2, 9]\nclass = virginica", fillcolor="#9d65eb"] ;
6 -> 7 ;
8 [label="petal width (cm) <= 1.55\ngini = 0.5\nsamples = 2\nvalue = [0, 2, 2]\nclass = versicolor", fillcolor="#ffffff"] ;
7 -> 8 ;
9 [label="gini = 0.0\nsamples = 1\nvalue = [0, 0, 2]\nclass = virginica", fillcolor="#8139e5"] ;
8 -> 9 ;
10 [label="gini = 0.0\nsamples = 1\nvalue = [0, 2, 0]\nclass = versicolor", fillcolor="#39e581"] ;
8 -> 10 ;
11 [label="gini = 0.0\nsamples = 3\nvalue = [0, 0, 7]\nclass = virginica", fillcolor="#8139e5"] ;
7 -> 11 ;
12 [label="gini = 0.0\nsamples = 25\nvalue = [0, 0, 36]\nclass = virginica", fillcolor="#8139e5"] ;
6 -> 12 ;
}